svm_type c_svc
kernel_type rbf
gamma 0.013157894736842105
nr_class 2
total_sv 165
rho 0.5267553806408596
label 1 -1
nr_sv 83 82
SV
1.0 0:2.0 24:1.0 29:1.0 36:1.0 
1.0 9:1.0 16:1.0 27:1.0 30:1.0 53:1.0 64:1.0 
1.0 12:1.0 
1.0 0:2.0 24:1.0 29:1.0 36:1.0 
0.8415468596764053 0:1.0 4:1.0 12:1.0 14:1.0 16:2.0 24:1.0 27:1.0 
1.0 9:1.0 16:1.0 27:1.0 30:1.0 53:1.0 64:1.0 
1.0 16:1.0 21:1.0 28:1.0 69:1.0 
1.0 24:1.0 33:1.0 41:1.0 
1.0 16:1.0 21:1.0 
1.0 21:1.0 35:1.0 
1.0 62:1.0 71:1.0 
1.0 16:2.0 27:1.0 61:2.0 70:1.0 
1.0 4:1.0 24:1.0 27:1.0 
1.0 28:2.0 33:2.0 41:1.0 45:1.0 
1.0 16:2.0 28:1.0 
1.0 16:2.0 60:1.0 
1.0 16:1.0 44:1.0 56:1.0 
1.0 16:1.0 51:1.0 
1.0 7:1.0 16:1.0 28:1.0 57:1.0 
1.0 0:1.0 21:1.0 24:1.0 37:1.0 51:1.0 56:1.0 74:1.0 
1.0 24:1.0 
1.0 16:2.0 28:1.0 
1.0 18:1.0 24:1.0 42:1.0 52:1.0 56:1.0 69:1.0 
1.0 16:1.0 44:1.0 56:1.0 
1.0 16:1.0 51:1.0 
1.0 7:1.0 16:1.0 28:1.0 57:1.0 
1.0 0:1.0 21:1.0 24:1.0 37:1.0 51:1.0 56:1.0 74:1.0 
1.0 18:1.0 24:1.0 42:1.0 52:1.0 56:1.0 69:1.0 
1.0 16:1.0 28:1.0 45:1.0 
1.0 24:1.0 
0.5132377187946299 16:2.0 24:1.0 
1.0 12:1.0 16:2.0 
1.0 0:2.0 16:2.0 27:1.0 
1.0 16:1.0 17:1.0 48:1.0 
1.0 16:2.0 28:1.0 45:1.0 61:1.0 
1.0 14:1.0 16:1.0 31:1.0 35:1.0 51:1.0 
1.0 31:2.0 45:1.0 
1.0 0:1.0 7:1.0 16:1.0 24:1.0 76:2.0 
1.0 24:1.0 41:1.0 
1.0 14:1.0 15:1.0 16:1.0 
1.0 0:1.0 27:1.0 62:1.0 70:1.0 
1.0 24:1.0 39:1.0 49:1.0 
1.0 0:3.0 4:1.0 7:1.0 16:1.0 27:1.0 28:2.0 41:1.0 59:1.0 63:1.0 66:1.0 70:1.0 
1.0 28:1.0 48:1.0 63:1.0 
1.0 0:1.0 54:1.0 
1.0 0:1.0 24:1.0 28:1.0 47:1.0 51:1.0 
1.0 24:1.0 52:1.0 
1.0 0:1.0 4:1.0 63:1.0 
1.0 16:2.0 24:1.0 49:1.0 
1.0 24:1.0 52:1.0 
1.0 0:1.0 4:1.0 63:1.0 
1.0 16:2.0 24:1.0 49:1.0 
1.0 0:1.0 31:1.0 49:1.0 55:2.0 
1.0 16:1.0 24:1.0 71:1.0 
1.0 4:2.0 45:1.0 
1.0 0:1.0 31:1.0 49:1.0 55:2.0 
1.0 0:1.0 24:1.0 28:1.0 47:1.0 51:1.0 
1.0 4:2.0 45:1.0 
1.0 16:1.0 24:1.0 71:1.0 
0.45815531390001585 0:3.0 6:1.0 20:1.0 24:1.0 27:1.0 28:1.0 74:1.0 
0.9954369680025389 0:3.0 6:1.0 20:1.0 24:1.0 27:1.0 28:1.0 74:1.0 
1.0 24:1.0 33:2.0 62:1.0 
1.0 24:1.0 28:1.0 
1.0 7:2.0 15:1.0 16:1.0 33:1.0 61:1.0 
1.0 24:1.0 26:1.0 27:1.0 28:1.0 
0.7997225374829395 0:1.0 16:1.0 24:1.0 28:1.0 33:1.0 54:1.0 74:1.0 
1.0 7:2.0 15:1.0 16:1.0 33:1.0 61:1.0 
1.0 4:1.0 16:1.0 24:1.0 27:1.0 46:1.0 50:1.0 51:1.0 63:1.0 
1.0 4:1.0 16:1.0 24:1.0 27:1.0 46:1.0 50:1.0 51:1.0 63:1.0 
0.3611200636226354 24:1.0 28:1.0 37:1.0 59:1.0 66:1.0 74:1.0 
1.0 24:1.0 28:1.0 
1.0 24:1.0 33:2.0 62:1.0 
1.0 24:1.0 
1.0 28:1.0 
1.0 4:1.0 16:1.0 
1.0 12:1.0 24:1.0 47:1.0 61:1.0 65:1.0 
1.0 16:1.0 27:1.0 33:1.0 62:1.0 
0.09669642914034729 0:1.0 4:1.0 14:1.0 16:2.0 24:1.0 26:1.0 27:1.0 28:1.0 62:1.0 64:1.0 65:3.0 
0.1150323840136417 0:1.0 12:1.0 16:4.0 24:2.0 30:1.0 44:1.0 62:5.0 
1.0 27:1.0 37:1.0 52:1.0 62:1.0 65:1.0 66:1.0 
1.0 12:1.0 27:1.0 28:1.0 36:1.0 37:1.0 66:1.0 
1.0 21:1.0 24:1.0 
1.0 0:1.0 12:1.0 16:1.0 28:1.0 
-1.0 16:1.0 21:2.0 75:1.0 
-1.0 8:1.0 12:1.0 28:1.0 73:1.0 
-1.0 8:1.0 12:1.0 28:1.0 73:1.0 
-1.0 0:2.0 33:1.0 
-1.0 0:2.0 33:1.0 
-1.0 16:1.0 69:1.0 71:1.0 
-1.0 1:1.0 62:1.0 
-1.0 21:1.0 24:1.0 28:1.0 
-1.0 7:1.0 20:1.0 24:2.0 37:1.0 51:1.0 
-1.0 16:1.0 49:1.0 
-1.0 0:1.0 4:3.0 27:1.0 33:1.0 
-1.0 16:1.0 
-1.0 75:1.0 
-1.0 31:1.0 33:1.0 55:1.0 63:1.0 
-1.0 14:1.0 21:1.0 
-1.0 5:1.0 10:1.0 63:2.0 
-1.0 25:1.0 53:1.0 
-1.0 0:1.0 22:1.0 
-1.0 16:1.0 21:1.0 
-1.0 9:1.0 
-1.0 0:1.0 
-1.0 4:1.0 
-1.0 0:1.0 
-1.0 0:3.0 2:1.0 15:1.0 
-1.0 0:1.0 33:1.0 61:2.0 63:1.0 
-1.0 0:3.0 2:1.0 15:1.0 
-1.0 4:1.0 
-1.0 0:1.0 13:1.0 27:1.0 
-0.11521448032476461 0:1.0 33:1.0 34:1.0 38:2.0 63:2.0 72:2.0 
-1.0 0:3.0 2:1.0 4:2.0 5:1.0 14:3.0 16:4.0 21:1.0 53:1.0 59:1.0 61:1.0 62:2.0 63:2.0 65:1.0 
-0.9829160248515425 0:1.0 33:1.0 34:1.0 38:2.0 63:2.0 72:2.0 
-1.0 0:1.0 3:1.0 16:1.0 
-1.0 21:1.0 22:1.0 33:1.0 
-1.0 0:1.0 13:1.0 27:1.0 
-1.0 4:1.0 16:1.0 28:1.0 
-1.0 4:1.0 21:1.0 35:1.0 
-1.0 1:1.0 21:2.0 28:1.0 49:1.0 
-1.0 0:1.0 3:1.0 16:1.0 
-1.0 21:1.0 22:1.0 33:1.0 
-1.0 33:1.0 49:1.0 
-1.0 11:1.0 16:1.0 51:1.0 
-1.0 15:1.0 16:2.0 21:1.0 33:1.0 39:3.0 49:1.0 61:1.0 62:1.0 
-1.0 33:1.0 49:1.0 
-0.9627678658908814 21:1.0 33:1.0 41:1.0 63:1.0 
-1.0 12:1.0 16:1.0 
-1.0 11:1.0 16:1.0 51:1.0 
-1.0 15:1.0 16:2.0 21:1.0 33:1.0 39:3.0 49:1.0 61:1.0 62:1.0 
-1.0 0:1.0 4:1.0 21:2.0 22:1.0 24:1.0 33:1.0 41:1.0 50:1.0 
-1.0 13:1.0 16:2.0 28:1.0 39:1.0 49:1.0 
-1.0 4:1.0 
-1.0 0:1.0 49:1.0 
-1.0 5:1.0 9:1.0 12:1.0 26:1.0 33:1.0 51:1.0 52:1.0 
-1.0 10:1.0 16:1.0 63:2.0 69:1.0 
-1.0 16:1.0 21:1.0 42:1.0 
-1.0 9:1.0 16:1.0 40:1.0 73:1.0 
-1.0 16:1.0 32:1.0 55:1.0 62:2.0 
-1.0 5:1.0 26:1.0 41:1.0 55:2.0 
-1.0 4:1.0 33:1.0 63:1.0 
-1.0 4:1.0 31:1.0 63:1.0 
-1.0 4:1.0 21:1.0 62:1.0 
-1.0 16:1.0 27:1.0 
-1.0 16:1.0 21:1.0 
-1.0 0:1.0 45:1.0 49:1.0 
-1.0 21:1.0 50:1.0 
-1.0 21:1.0 63:1.0 
-1.0 4:1.0 15:1.0 64:1.0 
-1.0 4:1.0 
-1.0 10:1.0 16:3.0 32:1.0 40:1.0 65:1.0 
-0.014078098254243542 8:1.0 21:1.0 33:1.0 43:1.0 63:1.0 64:1.0 75:1.0 76:1.0 
-1.0 10:1.0 16:3.0 32:1.0 40:1.0 65:1.0 
-1.0 3:1.0 21:1.0 49:1.0 
-1.0 3:1.0 21:1.0 49:1.0 
-1.0 14:2.0 19:1.0 46:1.0 68:2.0 
-1.0 0:1.0 18:2.0 23:2.0 
-1.0 4:1.0 16:1.0 45:1.0 
-1.0 24:3.0 
-1.0 24:3.0 
-1.0 0:1.0 16:1.0 33:1.0 41:1.0 58:1.0 61:1.0 
-1.0 16:1.0 21:1.0 54:1.0 62:1.0 69:1.0 
-1.0 4:1.0 33:1.0 34:1.0 
-1.0 14:2.0 19:1.0 46:1.0 68:2.0 
-0.10597180531172185 4:1.0 11:1.0 21:1.0 33:1.0 60:1.0 61:1.0 62:1.0 
